digraph Tree {
node [shape=box, style="filled, rounded", color="black", fontname=helvetica] ;
edge [fontname=helvetica] ;
0 [label="sepal length (cm) <= 5.45\ngini = 0.66\nsamples = 95\nvalue = [46, 55, 49]\nclass = versicolor", fillcolor="#f3fdf8"] ;
1 [label="sepal width (cm) <= 2.85\ngini = 0.37\nsamples = 34\nvalue = [41, 12, 1]\nclass = setosa", fillcolor="#eda876"] ;
0 -> 1 [labeldistance=2.5, labelangle=45, headlabel="True"] ;
2 [label="petal length (cm) <= 2.15\ngini = 0.29\nsamples = 7\nvalue = [1, 10, 1]\nclass = versicolor", fillcolor="#5dea98"] ;
1 -> 2 ;
3 [label="gini = 0.0\nsamples = 1\nvalue = [1, 0, 0]\nclass = setosa", fillcolor="#e58139"] ;
2 -> 3 ;
4 [label="petal width (cm) <= 1.55\ngini = 0.17\nsamples = 6\nvalue = [0, 10, 1]\nclass = versicolor", fillcolor="#4de88e"] ;
2 -> 4 ;
5 [label="gini = 0.0\nsamples = 5\nvalue = [0, 10, 0]\nclass = versicolor", fillcolor="#39e581"] ;
4 -> 5 ;
6 [label="gini = 0.0\nsamples = 1\nvalue = [0, 0, 1]\nclass = virginica", fillcolor="#8139e5"] ;
4 -> 6 ;
7 [label="petal width (cm) <= 1.05\ngini = 0.09\nsamples = 27\nvalue = [40, 2, 0]\nclass = setosa", fillcolor="#e68743"] ;
1 -> 7 ;
8 [label="gini = 0.0\nsamples = 26\nvalue = [40, 0, 0]\nclass = setosa", fillcolor="#e58139"] ;
7 -> 8 ;
9 [label="gini = 0.0\nsamples = 1\nvalue = [0, 2, 0]\nclass = versicolor", fillcolor="#39e581"] ;
7 -> 9 ;
10 [label="petal width (cm) <= 1.7\ngini = 0.55\nsamples = 61\nvalue = [5, 43, 48]\nclass = virginica", fillcolor="#f3ecfd"] ;
0 -> 10 [labeldistance=2.5, labelangle=-45, headlabel="False"] ;
11 [label="sepal width (cm) <= 3.45\ngini = 0.19\nsamples = 31\nvalue = [5, 42, 0]\nclass = versicolor", fillcolor="#51e890"] ;
10 -> 11 ;
12 [label="gini = 0.0\nsamples = 26\nvalue = [0, 42, 0]\nclass = versicolor", fillcolor="#39e581"] ;
11 -> 12 ;
13 [label="gini = 0.0\nsamples = 5\nvalue = [5, 0, 0]\nclass = setosa", fillcolor="#e58139"] ;
11 -> 13 ;
14 [label="sepal length (cm) <= 5.95\ngini = 0.04\nsamples = 30\nvalue = [0, 1, 48]\nclass = virginica", fillcolor="#843de6"] ;
10 -> 14 ;
15 [label="petal width (cm) <= 1.85\ngini = 0.28\nsamples = 4\nvalue = [0, 1, 5]\nclass = virginica", fillcolor="#9a61ea"] ;
14 -> 15 ;
16 [label="gini = 0.0\nsamples = 1\nvalue = [0, 1, 0]\nclass = versicolor", fillcolor="#39e581"] ;
15 -> 16 ;
17 [label="gini = 0.0\nsamples = 3\nvalue = [0, 0, 5]\nclass = virginica", fillcolor="#8139e5"] ;
15 -> 17 ;
18 [label="gini = 0.0\nsamples = 26\nvalue = [0, 0, 43]\nclass = virginica", fillcolor="#8139e5"] ;
14 -> 18 ;
}